digraph Tree {
node [shape=box, style="filled", color="black"] ;
0 [label="petal length (cm) <= 2.35\ngini = 0.666\nsamples = 105\nvalue = [33, 35, 37]\nclass = virginica", fillcolor="#fbf9fe"] ;
1 [label="gini = 0.0\nsamples = 33\nvalue = [33, 0, 0]\nclass = setosa", fillcolor="#e58139"] ;
0 -> 1 [labeldistance=2.5, labelangle=45, headlabel="True"] ;
2 [label="petal width (cm) <= 1.65\ngini = 0.5\nsamples = 72\nvalue = [0, 35, 37]\nclass = virginica", fillcolor="#f8f4fe"] ;
0 -> 2 [labeldistance=2.5, labelangle=-45, headlabel="False"] ;
3 [label="petal length (cm) <= 4.95\ngini = 0.149\nsamples = 37\nvalue = [0, 34, 3]\nclass = versicolor", fillcolor="#4ae78c"] ;
2 -> 3 ;
4 [label="gini = 0.0\nsamples = 33\nvalue = [0, 33, 0]\nclass = versicolor", fillcolor="#39e581"] ;
3 -> 4 ;
5 [label="petal width (cm) <= 1.55\ngini = 0.375\nsamples = 4\nvalue = [0, 1, 3]\nclass = virginica", fillcolor="#ab7bee"] ;
3 -> 5 ;
6 [label="gini = 0.0\nsamples = 3\nvalue = [0, 0, 3]\nclass = virginica", fillcolor="#8139e5"] ;
5 -> 6 ;
7 [label="gini = 0.0\nsamples = 1\nvalue = [0, 1, 0]\nclass = versicolor", fillcolor="#39e581"] ;
5 -> 7 ;
8 [label="petal length (cm) <= 4.85\ngini = 0.056\nsamples = 35\nvalue = [0, 1, 34]\nclass = virginica", fillcolor="#853fe6"] ;
2 -> 8 ;
9 [label="sepal width (cm) <= 3.1\ngini = 0.444\nsamples = 3\nvalue = [0, 1, 2]\nclass = virginica", fillcolor="#c09cf2"] ;
8 -> 9 ;
10 [label="gini = 0.0\nsamples = 2\nvalue = [0, 0, 2]\nclass = virginica", fillcolor="#8139e5"] ;
9 -> 10 ;
11 [label="gini = 0.0\nsamples = 1\nvalue = [0, 1, 0]\nclass = versicolor", fillcolor="#39e581"] ;
9 -> 11 ;
12 [label="gini = 0.0\nsamples = 32\nvalue = [0, 0, 32]\nclass = virginica", fillcolor="#8139e5"] ;
8 -> 12 ;
}